<?xml version="1.0"?>
<opencv_storage>
<cascade>
  <stageType>BOOST</stageType>
  <featureType>HAAR</featureType>
  <height>32</height>
  <width>32</width>
  <stageParams>
    <boostType>GAB</boostType>
    <minHitRate>9.9500000476837158e-01</minHitRate>
    <maxFalseAlarm>5.0000000000000000e-01</maxFalseAlarm>
    <weightTrimRate>9.4999999999999996e-01</weightTrimRate>
    <maxDepth>1</maxDepth>
    <maxWeakCount>100</maxWeakCount></stageParams>
  <featureParams>
    <maxCatCount>0</maxCatCount>
    <featSize>1</featSize>
    <mode>BASIC</mode></featureParams>
  <stageNum>25</stageNum>
  <stages>
    <!-- stage 0 -->
    <_>
      <maxWeakCount>3</maxWeakCount>
      <stageThreshold>-6.9583040475845337e-01</stageThreshold>
      <weakClassifiers>
        <_>
          <internalNodes>
            0 -1 35 -2.1299917250871658e-02</internalNodes>
          <leafValues>
            7.6271188259124756e-01 -7.1428573131561279e-01</leafValues></_>
        <_>
          <internalNodes>
            0 -1 5 3.2091967761516571e-02</internalNodes>
          <leafValues>
            -7.2708094120025635e-01 7.8487837314605713e-01</leafValues></_>
        <_>
          <internalNodes>
            0 -1 167 -9.4492621719837189e-03</internalNodes>
          <leafValues>
            7.7970957756042480e-01 -7.3146128654479980e-01</leafValues></_></weakClassifiers></_>
    <!-- stage 1 -->
    <_>
      <maxWeakCount>4</maxWeakCount>
      <stageThreshold>-1.1986430883407593e+00</stageThreshold>
      <weakClassifiers>
        <_>
          <internalNodes>
            0 -1 6 5.4739616811275482e-02</internalNodes>
          <leafValues>
            -6.0000002384185791e-01 8.0891722440719604e-01</leafValues></_>
        <_>
          <internalNodes>
            0 -1 58 -1.0342638939619064e-02</internalNodes>
          <leafValues>
            5.3959548473358154e-01 -8.3794993162155151e-01</leafValues></_>
        <_>
          <internalNodes>
            0 -1 7 2.8133038431406021e-03</internalNodes>
          <leafValues>
            -5.5483722686767578e-01 7.6571416854858398e-01</leafValues></_>
        <_>
          <internalNodes>
            0 -1 174 -5.0148535519838333e-03</internalNodes>
          <leafValues>
            6.3463962078094482e-01 -5.8340132236480713e-01</leafValues></_></weakClassifiers></_>
    <!-- stage 2 -->
    <_>
      <maxWeakCount>5</maxWeakCount>
      <stageThreshold>-5.1722043752670288e-01</stageThreshold>
      <weakClassifiers>
        <_>
          <internalNodes>
            0 -1 8 1.3814973644912243e-02</internalNodes>
          <leafValues>
            -6.4705884456634521e-01 6.5934067964553833e-01</leafValues></_>
        <_>
          <internalNodes>
            0 -1 34 -1.6409810632467270e-02</internalNodes>
          <leafValues>
            6.0080575942993164e-01 -7.3612582683563232e-01</leafValues></_>
        <_>
          <internalNodes>
            0 -1 53 6.1500489711761475e-02</internalNodes>
          <leafValues>
            -4.4111365079879761e-01 8.1161856651306152e-01</leafValues></_>
        <_>
          <internalNodes>
            0 -1 175 -7.6022869907319546e-03</internalNodes>
          <leafValues>
            6.8295556306838989e-01 -5.5432486534118652e-01</leafValues></_>
        <_>
          <internalNodes>
            0 -1 3 1.3420835137367249e-01</internalNodes>
          <leafValues>
            -5.8290463685989380e-01 6.2412226200103760e-01</leafValues></_></weakClassifiers></_>
    <!-- stage 3 -->
    <_>
      <maxWeakCount>7</maxWeakCount>
      <stageThreshold>-5.9165829420089722e-01</stageThreshold>
      <weakClassifiers>
        <_>
          <internalNodes>
            0 -1 85 -4.9194660969078541e-03</internalNodes>
          <leafValues>
            7.9411762952804565e-01 -4.5370370149612427e-01</leafValues></_>
        <_>
          <internalNodes>
            0 -1 4 1.5517327934503555e-02</internalNodes>
          <leafValues>
            -4.6920990943908691e-01 6.7580646276473999e-01</leafValues></_>
        <_>
          <internalNodes>
            0 -1 133 -3.4189103171229362e-03</internalNodes>
          <leafValues>
            4.5764166116714478e-01 -6.0942459106445312e-01</leafValues></_>
        <_>
          <internalNodes>
            0 -1 30 2.9317405074834824e-02</internalNodes>
          <leafValues>
            -5.9813666343688965e-01 4.6363589167594910e-01</leafValues></_>
        <_>
          <internalNodes>
            0 -1 19 -1.6086146235466003e-02</internalNodes>
          <leafValues>
            6.1790370941162109e-01 -4.2320546507835388e-01</leafValues></_>
        <_>
          <internalNodes>
            0 -1 104 -5.4243384511210024e-05</internalNodes>
          <leafValues>
            5.2758616209030151e-01 -4.9551543593406677e-01</leafValues></_>
        <_>
          <internalNodes>
            0 -1 84 -3.1645558919990435e-05</internalNodes>
          <leafValues>
            3.7266325950622559e-01 -6.4162796735763550e-01</leafValues></_></weakClassifiers></_>
    <!-- stage 4 -->
    <_>
      <maxWeakCount>5</maxWeakCount>
      <stageThreshold>-3.5790222883224487e-01</stageThreshold>
      <weakClassifiers>
        <_>
          <internalNodes>
            0 -1 52 5.4026045836508274e-03</internalNodes>
          <leafValues>
            -6.0000002384185791e-01 8.0891722440719604e-01</leafValues></_>
        <_>
          <internalNodes>
            0 -1 24 -7.2166481986641884e-03</internalNodes>
          <leafValues>
            8.2420367002487183e-01 -4.9665731191635132e-01</leafValues></_>
        <_>
          <internalNodes>
            0 -1 120 -2.4762045359238982e-04</internalNodes>
          <leafValues>
            -8.4786838293075562e-01 4.3406602740287781e-01</leafValues></_>
        <_>
          <internalNodes>
            0 -1 31 1.2386813759803772e-02</internalNodes>
          <leafValues>
            -4.8788499832153320e-01 6.6124093532562256e-01</leafValues></_>
        <_>
          <internalNodes>
            0 -1 20 -1.1751610785722733e-02</internalNodes>
          <leafValues>
            9.6049338579177856e-01 -3.5655185580253601e-01</leafValues></_></weakClassifiers></_>
    <!-- stage 5 -->
    <_>
      <maxWeakCount>4</maxWeakCount>
      <stageThreshold>-4.7402593493461609e-01</stageThreshold>
      <weakClassifiers>
        <_>
          <internalNodes>
            0 -1 67 2.1343255415558815e-02</internalNodes>
          <leafValues>
            -4.8543688654899597e-01 7.5342464447021484e-01</leafValues></_>
        <_>
          <internalNodes>
            0 -1 88 5.4104963783174753e-04</internalNodes>
          <leafValues>
            3.4326437115669250e-01 -9.5512068271636963e-01</leafValues></_>
        <_>
          <internalNodes>
            0 -1 51 -1.7714358866214752e-02</internalNodes>
          <leafValues>
            5.9361523389816284e-01 -5.0772666931152344e-01</leafValues></_>
        <_>
          <internalNodes>
            0 -1 107 -3.2875206670723855e-04</internalNodes>
          <leafValues>
            -9.2546862363815308e-01 3.1914374232292175e-01</leafValues></_></weakClassifiers></_>
    <!-- stage 6 -->
    <_>
      <maxWeakCount>7</maxWeakCount>
      <stageThreshold>-8.4678417444229126e-01</stageThreshold>
      <weakClassifiers>
        <_>
          <internalNodes>
            0 -1 26 -1.9834928214550018e-02</internalNodes>
          <leafValues>
            6.6265058517456055e-01 -5.3763443231582642e-01</leafValues></_>
        <_>
          <internalNodes>
            0 -1 73 8.1784203648567200e-03</internalNodes>
          <leafValues>
            -4.0116038918495178e-01 6.8412584066390991e-01</leafValues></_>
        <_>
          <internalNodes>
            0 -1 43 -5.9151747263967991e-03</internalNodes>
          <leafValues>
            5.3018206357955933e-01 -4.6049597859382629e-01</leafValues></_>
        <_>
          <internalNodes>
            0 -1 138 -6.5675907535478473e-04</internalNodes>
          <leafValues>
            4.7133955359458923e-01 -5.5339908599853516e-01</leafValues></_>
        <_>
          <internalNodes>
            0 -1 94 2.9467299464158714e-04</internalNodes>
          <leafValues>
            3.4960904717445374e-01 -8.2718378305435181e-01</leafValues></_>
        <_>
          <internalNodes>
            0 -1 18 3.3675022423267365e-03</internalNodes>
          <leafValues>
            -4.9852395057678223e-01 5.9586501121520996e-01</leafValues></_>
        <_>
          <internalNodes>
            0 -1 98 -2.0852021407335997e-04</internalNodes>
          <leafValues>
            -8.9833283424377441e-01 2.6414257287979126e-01</leafValues></_></weakClassifiers></_>
    <!-- stage 7 -->
    <_>
      <maxWeakCount>6</maxWeakCount>
      <stageThreshold>-4.7908487915992737e-01</stageThreshold>
      <weakClassifiers>
        <_>
          <internalNodes>
            0 -1 173 -8.6094969883561134e-03</internalNodes>
          <leafValues>
            6.9655174016952515e-01 -4.3961352109909058e-01</leafValues></_>
        <_>
          <internalNodes>
            0 -1 22 9.1808177530765533e-03</internalNodes>
          <leafValues>
            -5.2772235870361328e-01 5.6200462579727173e-01</leafValues></_>
        <_>
          <internalNodes>
            0 -1 131 -1.3281212886795402e-04</internalNodes>
          <leafValues>
            -9.4564294815063477e-01 2.7571710944175720e-01</leafValues></_>
        <_>
          <internalNodes>
            0 -1 71 -3.4805238246917725e-02</internalNodes>
          <leafValues>
            4.4047352671623230e-01 -5.8295238018035889e-01</leafValues></_>
        <_>
          <internalNodes>
            0 -1 103 -1.0521538555622101e-01</internalNodes>
          <leafValues>
            3.7463030219078064e-01 -5.9409385919570923e-01</leafValues></_>
        <_>
          <internalNodes>
            0 -1 60 1.1047773063182831e-02</internalNodes>
          <leafValues>
            -4.4975155591964722e-01 5.5248910188674927e-01</leafValues></_></weakClassifiers></_>
    <!-- stage 8 -->
    <_>
      <maxWeakCount>5</maxWeakCount>
      <stageThreshold>-1.0478304624557495e+00</stageThreshold>
      <weakClassifiers>
        <_>
          <internalNodes>
            0 -1 114 8.3377258852124214e-03</internalNodes>
          <leafValues>
            -4.5161288976669312e-01 5.6626504659652710e-01</leafValues></_>
        <_>
          <internalNodes>
            0 -1 130 -1.6620657697785646e-04</internalNodes>
          <leafValues>
            -9.2006915807723999e-01 2.8377333283424377e-01</leafValues></_>
        <_>
          <internalNodes>
            0 -1 110 7.5658306013792753e-04</internalNodes>
          <leafValues>
            2.9240506887435913e-01 -8.0278229713439941e-01</leafValues></_>
        <_>
          <internalNodes>
            0 -1 9 1.4079183340072632e-02</internalNodes>
          <leafValues>
            -4.0233811736106873e-01 6.1158692836761475e-01</leafValues></_>
        <_>
          <internalNodes>
            0 -1 101 8.1437727203592658e-05</internalNodes>
          <leafValues>
            2.9485163092613220e-01 -7.7005785703659058e-01</leafValues></_></weakClassifiers></_>
    <!-- stage 9 -->
    <_>
      <maxWeakCount>7</maxWeakCount>
      <stageThreshold>-1.1912782192230225e+00</stageThreshold>
      <weakClassifiers>
        <_>
          <internalNodes>
            0 -1 172 -1.6410641372203827e-02</internalNodes>
          <leafValues>
            7.2413790225982666e-01 -3.1355932354927063e-01</leafValues></_>
        <_>
          <internalNodes>
            0 -1 36 3.5310615785419941e-03</internalNodes>
          <leafValues>
            -4.2148035764694214e-01 5.1248466968536377e-01</leafValues></_>
        <_>
          <internalNodes>
            0 -1 56 -1.0891455895034596e-04</internalNodes>
          <leafValues>
            -7.4982959032058716e-01 2.8819394111633301e-01</leafValues></_>
        <_>
          <internalNodes>
            0 -1 79 9.1063082218170166e-03</internalNodes>
          <leafValues>
            -3.7477716803550720e-01 5.9136003255844116e-01</leafValues></_>
        <_>
          <internalNodes>
            0 -1 139 -1.7014233162626624e-04</internalNodes>
          <leafValues>
            -8.3524835109710693e-01 2.7474009990692139e-01</leafValues></_>
        <_>
          <internalNodes>
            0 -1 128 1.4028394070919603e-04</internalNodes>
          <leafValues>
            1.8501991033554077e-01 -8.4587240219116211e-01</leafValues></_>
        <_>
          <internalNodes>
            0 -1 134 1.3744573516305536e-04</internalNodes>
          <leafValues>
            2.0860829949378967e-01 -8.3909809589385986e-01</leafValues></_></weakClassifiers></_>
    <!-- stage 10 -->
    <_>
      <maxWeakCount>7</maxWeakCount>
      <stageThreshold>-7.2007024288177490e-01</stageThreshold>
      <weakClassifiers>
        <_>
          <internalNodes>
            0 -1 166 4.2164893820881844e-03</internalNodes>
          <leafValues>
            -4.4444444775581360e-01 6.3636362552642822e-01</leafValues></_>
        <_>
          <internalNodes>
            0 -1 46 1.9096087664365768e-02</internalNodes>
          <leafValues>
            -3.6343631148338318e-01 6.2087917327880859e-01</leafValues></_>
        <_>
          <internalNodes>
            0 -1 102 -3.0663947109133005e-03</internalNodes>
          <leafValues>
            5.5536407232284546e-01 -3.3749523758888245e-01</leafValues></_>
        <_>
          <internalNodes>
            0 -1 147 2.6898337528109550e-02</internalNodes>
          <leafValues>
            -3.0754449963569641e-01 6.3671678304672241e-01</leafValues></_>
        <_>
          <internalNodes>
            0 -1 15 -1.2619940098375082e-03</internalNodes>
          <leafValues>
            4.8399496078491211e-01 -4.2931571602821350e-01</leafValues></_>
        <_>
          <internalNodes>
            0 -1 47 -8.6060930043458939e-03</internalNodes>
          <leafValues>
            5.9869962930679321e-01 -3.1410914659500122e-01</leafValues></_>
        <_>
          <internalNodes>
            0 -1 38 -1.2668636627495289e-03</internalNodes>
          <leafValues>
            6.2419694662094116e-01 -3.2939296960830688e-01</leafValues></_></weakClassifiers></_>
    <!-- stage 11 -->
    <_>
      <maxWeakCount>8</maxWeakCount>
      <stageThreshold>-8.6932170391082764e-01</stageThreshold>
      <weakClassifiers>
        <_>
          <internalNodes>
            0 -1 125 3.5545771243050694e-04</internalNodes>
          <leafValues>
            3.2558140158653259e-01 -7.8723406791687012e-01</leafValues></_>
        <_>
          <internalNodes>
            0 -1 135 -1.1898640543222427e-02</internalNodes>
          <leafValues>
            5.8571642637252808e-01 -4.5128643512725830e-01</leafValues></_>
        <_>
          <internalNodes>
            0 -1 91 1.0528563871048391e-04</internalNodes>
          <leafValues>
            3.2796460390090942e-01 -6.3870680332183838e-01</leafValues></_>
        <_>
          <internalNodes>
            0 -1 14 4.9923183396458626e-03</internalNodes>
          <leafValues>
            -3.4768950939178467e-01 6.1459493637084961e-01</leafValues></_>
        <_>
          <internalNodes>
            0 -1 40 4.3261330574750900e-02</internalNodes>
          <leafValues>
            -4.4312301278114319e-01 4.7578692436218262e-01</leafValues></_>
        <_>
          <internalNodes>
            0 -1 150 -3.7101708585396409e-04</internalNodes>
          <leafValues>
            3.9589828252792358e-01 -5.5918878316879272e-01</leafValues></_>
        <_>
          <internalNodes>
            0 -1 50 -1.8738479411695153e-04</internalNodes>
          <leafValues>
            -7.7092552185058594e-01 2.4664285778999329e-01</leafValues></_>
        <_>
          <internalNodes>
            0 -1 149 1.3119586219545454e-04</internalNodes>
          <leafValues>
            1.8230819702148438e-01 -9.5935362577438354e-01</leafValues></_></weakClassifiers></_>
    <!-- stage 12 -->
    <_>
      <maxWeakCount>6</maxWeakCount>
      <stageThreshold>-5.8054667711257935e-01</stageThreshold>
      <weakClassifiers>
        <_>
          <internalNodes>
            0 -1 77 1.7590210773050785e-03</internalNodes>
          <leafValues>
            -3.4562212228775024e-01 6.2962961196899414e-01</leafValues></_>
        <_>
          <internalNodes>
            0 -1 140 3.0775580671615899e-04</internalNodes>
          <leafValues>
            2.4070589244365692e-01 -7.6654130220413208e-01</leafValues></_>
        <_>
          <internalNodes>
            0 -1 146 -2.6927911676466465e-03</internalNodes>
          <leafValues>
            4.9526789784431458e-01 -4.1227814555168152e-01</leafValues></_>
        <_>
          <internalNodes>
            0 -1 97 -1.1439390073064715e-04</internalNodes>
          <leafValues>
            3.6183568835258484e-01 -6.1554813385009766e-01</leafValues></_>
        <_>
          <internalNodes>
            0 -1 118 1.0502491932129487e-04</internalNodes>
          <leafValues>
            2.0079545676708221e-01 -7.2623968124389648e-01</leafValues></_>
        <_>
          <internalNodes>
            0 -1 89 -4.3349794577807188e-04</internalNodes>
          <leafValues>
            3.5140037536621094e-01 -5.4089647531509399e-01</leafValues></_></weakClassifiers></_>
    <!-- stage 13 -->
    <_>
      <maxWeakCount>9</maxWeakCount>
      <stageThreshold>-4.2603299021720886e-01</stageThreshold>
      <weakClassifiers>
        <_>
          <internalNodes>
            0 -1 156 1.2795708142220974e-02</internalNodes>
          <leafValues>
            -3.9393940567970276e-01 5.7142859697341919e-01</leafValues></_>
        <_>
          <internalNodes>
            0 -1 163 -3.7100943736732006e-03</internalNodes>
          <leafValues>
            4.7205340862274170e-01 -3.6452549695968628e-01</leafValues></_>
        <_>
          <internalNodes>
            0 -1 29 5.4404444992542267e-02</internalNodes>
          <leafValues>
            -4.9147000908851624e-01 3.5092061758041382e-01</leafValues></_>
        <_>
          <internalNodes>
            0 -1 39 -4.9204770475625992e-03</internalNodes>
          <leafValues>
            3.5446944832801819e-01 -5.9261173009872437e-01</leafValues></_>
        <_>
          <internalNodes>
            0 -1 129 3.4627228160388768e-04</internalNodes>
          <leafValues>
            2.1771283447742462e-01 -7.7112907171249390e-01</leafValues></_>
        <_>
          <internalNodes>
            0 -1 169 -8.6263716220855713e-03</internalNodes>
          <leafValues>
            7.4173945188522339e-01 -3.2393550872802734e-01</leafValues></_>
        <_>
          <internalNodes>
            0 -1 168 3.0739721842110157e-03</internalNodes>
          <leafValues>
            -2.6749923825263977e-01 7.0259493589401245e-01</leafValues></_>
        <_>
          <internalNodes>
            0 -1 93 -6.4890662906691432e-04</internalNodes>
          <leafValues>
            3.4484913945198059e-01 -6.1631810665130615e-01</leafValues></_>
        <_>
          <internalNodes>
            0 -1 80 -4.5258142054080963e-02</internalNodes>
          <leafValues>
            6.7529428005218506e-01 -2.3358313739299774e-01</leafValues></_></weakClassifiers></_>
    <!-- stage 14 -->
    <_>
      <maxWeakCount>8</maxWeakCount>
      <stageThreshold>-8.4442389011383057e-01</stageThreshold>
      <weakClassifiers>
        <_>
          <internalNodes>
            0 -1 2 1.0138407349586487e-02</internalNodes>
          <leafValues>
            -2.9357796907424927e-01 5.5223882198333740e-01</leafValues></_>
        <_>
          <internalNodes>
            0 -1 164 -2.3068310110829771e-04</internalNodes>
          <leafValues>
            3.3607733249664307e-01 -5.6987732648849487e-01</leafValues></_>
        <_>
          <internalNodes>
            0 -1 57 -4.6848325291648507e-04</internalNodes>
          <leafValues>
            -8.4207808971405029e-01 2.0012341439723969e-01</leafValues></_>
        <_>
          <internalNodes>
            0 -1 69 1.6816535498946905e-03</internalNodes>
          <leafValues>
            -2.9600456357002258e-01 6.4599907398223877e-01</leafValues></_>
        <_>
          <internalNodes>
            0 -1 160 -5.7037144870264456e-05</internalNodes>
          <leafValues>
            3.7459719181060791e-01 -4.4787251949310303e-01</leafValues></_>
        <_>
          <internalNodes>
            0 -1 1 7.0261666551232338e-03</internalNodes>
          <leafValues>
            -3.1377565860748291e-01 5.2045065164566040e-01</leafValues></_>
        <_>
          <internalNodes>
            0 -1 55 -3.1479210592806339e-03</internalNodes>
          <leafValues>
            8.3999073505401611e-01 -2.3682650923728943e-01</leafValues></_>
        <_>
          <internalNodes>
            0 -1 87 -6.6241613239981234e-05</internalNodes>
          <leafValues>
            -6.1503714323043823e-01 3.2491663098335266e-01</leafValues></_></weakClassifiers></_>
    <!-- stage 15 -->
    <_>
      <maxWeakCount>8</maxWeakCount>
      <stageThreshold>-7.1227133274078369e-01</stageThreshold>
      <weakClassifiers>
        <_>
          <internalNodes>
            0 -1 72 3.1819266732782125e-03</internalNodes>
          <leafValues>
            -2.2480620443820953e-01 7.2340422868728638e-01</leafValues></_>
        <_>
          <internalNodes>
            0 -1 76 8.3461287431418896e-04</internalNodes>
          <leafValues>
            -2.9335263371467590e-01 5.3658759593963623e-01</leafValues></_>
        <_>
          <internalNodes>
            0 -1 136 -1.0547364945523441e-04</internalNodes>
          <leafValues>
            -7.6428669691085815e-01 1.8991404771804810e-01</leafValues></_>
        <_>
          <internalNodes>
            0 -1 95 1.2399139814078808e-04</internalNodes>
          <leafValues>
            1.8170866370201111e-01 -7.7772516012191772e-01</leafValues></_>
        <_>
          <internalNodes>
            0 -1 111 -1.1190593068022281e-04</internalNodes>
          <leafValues>
            -7.2159481048583984e-01 2.1928974986076355e-01</leafValues></_>
        <_>
          <internalNodes>
            0 -1 32 -7.1770489215850830e-02</internalNodes>
          <leafValues>
            5.3414136171340942e-01 -3.0333626270294189e-01</leafValues></_>
        <_>
          <internalNodes>
            0 -1 63 -8.3666614955291152e-05</internalNodes>
          <leafValues>
            -7.5232869386672974e-01 2.1869771182537079e-01</leafValues></_>
        <_>
          <internalNodes>
            0 -1 21 -1.9811491947621107e-03</internalNodes>
          <leafValues>
            3.0789425969123840e-01 -5.7612591981887817e-01</leafValues></_></weakClassifiers></_>
    <!-- stage 16 -->
    <_>
      <maxWeakCount>9</maxWeakCount>
      <stageThreshold>-9.2681956291198730e-01</stageThreshold>
      <weakClassifiers>
        <_>
          <internalNodes>
            0 -1 27 1.2046584859490395e-02</internalNodes>
          <leafValues>
            -4.3589743971824646e-01 3.9795917272567749e-01</leafValues></_>
        <_>
          <internalNodes>
            0 -1 17 2.3386939428746700e-03</internalNodes>
          <leafValues>
            -1.9925802946090698e-01 7.4472767114639282e-01</leafValues></_>
        <_>
          <internalNodes>
            0 -1 49 -1.0264990851283073e-04</internalNodes>
          <leafValues>
            3.9663353562355042e-01 -3.7258914113044739e-01</leafValues></_>
        <_>
          <internalNodes>
            0 -1 177 -7.1759792044758797e-03</internalNodes>
          <leafValues>
            6.4872711896896362e-01 -2.5922033190727234e-01</leafValues></_>
        <_>
          <internalNodes>
            0 -1 153 -1.2377623352222145e-04</internalNodes>
          <leafValues>
            3.4070247411727905e-01 -4.8927208781242371e-01</leafValues></_>
        <_>
          <internalNodes>
            0 -1 90 -2.1865878079552203e-04</internalNodes>
          <leafValues>
            -8.3259350061416626e-01 2.5317484140396118e-01</leafValues></_>
        <_>
          <internalNodes>
            0 -1 179 1.7051098402589560e-03</internalNodes>
          <leafValues>
            -3.2636290788650513e-01 5.8269697427749634e-01</leafValues></_>
        <_>
          <internalNodes>
            0 -1 148 -9.0045577962882817e-06</internalNodes>
          <leafValues>
            4.1169214248657227e-01 -4.5076951384544373e-01</leafValues></_>
        <_>
          <internalNodes>
            0 -1 158 6.1943987384438515e-04</internalNodes>
          <leafValues>
            -3.2490751147270203e-01 6.3037228584289551e-01</leafValues></_></weakClassifiers></_>
    <!-- stage 17 -->
    <_>
      <maxWeakCount>9</maxWeakCount>
      <stageThreshold>-1.0070942640304565e+00</stageThreshold>
      <weakClassifiers>
        <_>
          <internalNodes>
            0 -1 11 7.5277537107467651e-03</internalNodes>
          <leafValues>
            -5.8620691299438477e-01 3.3050847053527832e-01</leafValues></_>
        <_>
          <internalNodes>
            0 -1 45 -1.2631509453058243e-02</internalNodes>
          <leafValues>
            4.5446795225143433e-01 -3.9729309082031250e-01</leafValues></_>
        <_>
          <internalNodes>
            0 -1 117 6.5342479501850903e-05</internalNodes>
          <leafValues>
            2.0543116331100464e-01 -6.7315155267715454e-01</leafValues></_>
        <_>
          <internalNodes>
            0 -1 65 1.5178254805505276e-02</internalNodes>
          <leafValues>
            -3.7934261560440063e-01 4.5686763525009155e-01</leafValues></_>
        <_>
          <internalNodes>
            0 -1 68 -6.1339051462709904e-03</internalNodes>
          <leafValues>
            8.6940920352935791e-01 -1.9055062532424927e-01</leafValues></_>
        <_>
          <internalNodes>
            0 -1 132 -2.0377775654196739e-03</internalNodes>
          <leafValues>
            5.1992768049240112e-01 -2.6171189546585083e-01</leafValues></_>
        <_>
          <internalNodes>
            0 -1 157 -7.5591518543660641e-04</internalNodes>
          <leafValues>
            -7.7995216846466064e-01 1.9265218079090118e-01</leafValues></_>
        <_>
          <internalNodes>
            0 -1 59 -7.5361807830631733e-04</internalNodes>
          <leafValues>
            4.9616912007331848e-01 -2.9849770665168762e-01</leafValues></_>
        <_>
          <internalNodes>
            0 -1 124 8.5233757272362709e-04</internalNodes>
          <leafValues>
            -3.5153457522392273e-01 4.6069425344467163e-01</leafValues></_></weakClassifiers></_>
    <!-- stage 18 -->
    <_>
      <maxWeakCount>8</maxWeakCount>
      <stageThreshold>-9.7796070575714111e-01</stageThreshold>
      <weakClassifiers>
        <_>
          <internalNodes>
            0 -1 78 -3.6533325910568237e-03</internalNodes>
          <leafValues>
            5.8730161190032959e-01 -2.8318583965301514e-01</leafValues></_>
        <_>
          <internalNodes>
            0 -1 159 -1.9758092239499092e-03</internalNodes>
          <leafValues>
            -7.3896688222885132e-01 2.5501814484596252e-01</leafValues></_>
        <_>
          <internalNodes>
            0 -1 142 -7.3508374043740332e-05</internalNodes>
          <leafValues>
            -6.0159969329833984e-01 2.4951677024364471e-01</leafValues></_>
        <_>
          <internalNodes>
            0 -1 176 -3.0330880545079708e-03</internalNodes>
          <leafValues>
            3.9153373241424561e-01 -3.7661236524581909e-01</leafValues></_>
        <_>
          <internalNodes>
            0 -1 165 -1.4619991998188198e-04</internalNodes>
          <leafValues>
            4.2513778805732727e-01 -3.8926103711128235e-01</leafValues></_>
        <_>
          <internalNodes>
            0 -1 91 2.0066939759999514e-04</internalNodes>
          <leafValues>
            1.9552381336688995e-01 -8.5424095392227173e-01</leafValues></_>
        <_>
          <internalNodes>
            0 -1 122 -1.2138292659074068e-03</internalNodes>
          <leafValues>
            8.6060446500778198e-01 -2.1834290027618408e-01</leafValues></_>
        <_>
          <internalNodes>
            0 -1 109 -6.4137188019230962e-05</internalNodes>
          <leafValues>
            5.5381971597671509e-01 -3.2764694094657898e-01</leafValues></_></weakClassifiers></_>
    <!-- stage 19 -->
    <_>
      <maxWeakCount>8</maxWeakCount>
      <stageThreshold>-4.4606077671051025e-01</stageThreshold>
      <weakClassifiers>
        <_>
          <internalNodes>
            0 -1 126 -8.9170835053664632e-06</internalNodes>
          <leafValues>
            3.6190477013587952e-01 -4.6478873491287231e-01</leafValues></_>
        <_>
          <internalNodes>
            0 -1 144 -8.8513712398707867e-05</internalNodes>
          <leafValues>
            -6.6288340091705322e-01 2.1640411019325256e-01</leafValues></_>
        <_>
          <internalNodes>
            0 -1 143 4.0153379086405039e-04</internalNodes>
          <leafValues>
            2.4828338623046875e-01 -6.4269262552261353e-01</leafValues></_>
        <_>
          <internalNodes>
            0 -1 162 1.9303266890347004e-03</internalNodes>
          <leafValues>
            -3.9373484253883362e-01 3.9024141430854797e-01</leafValues></_>
        <_>
          <internalNodes>
            0 -1 16 8.9071388356387615e-04</internalNodes>
          <leafValues>
            -3.5746902227401733e-01 4.0327355265617371e-01</leafValues></_>
        <_>
          <internalNodes>
            0 -1 123 6.3410407165065408e-04</internalNodes>
          <leafValues>
            -2.7759507298469543e-01 5.6234002113342285e-01</leafValues></_>
        <_>
          <internalNodes>
            0 -1 112 1.1293127317912877e-04</internalNodes>
          <leafValues>
            1.8002593517303467e-01 -7.4425333738327026e-01</leafValues></_>
        <_>
          <internalNodes>
            0 -1 83 1.3924224302172661e-02</internalNodes>
          <leafValues>
            -2.4548511207103729e-01 6.7334991693496704e-01</leafValues></_></weakClassifiers></_>
    <!-- stage 20 -->
    <_>
      <maxWeakCount>10</maxWeakCount>
      <stageThreshold>-1.2164509296417236e+00</stageThreshold>
      <weakClassifiers>
        <_>
          <internalNodes>
            0 -1 108 -9.6868143373285420e-06</internalNodes>
          <leafValues>
            3.4615385532379150e-01 -4.3055555224418640e-01</leafValues></_>
        <_>
          <internalNodes>
            0 -1 152 3.8873243611305952e-03</internalNodes>
          <leafValues>
            -2.1107405424118042e-01 6.7384892702102661e-01</leafValues></_>
        <_>
          <internalNodes>
            0 -1 62 3.6794608458876610e-03</internalNodes>
          <leafValues>
            -2.3361223936080933e-01 5.0544923543930054e-01</leafValues></_>
        <_>
          <internalNodes>
            0 -1 106 -1.9473900465527549e-05</internalNodes>
          <leafValues>
            3.2988435029983521e-01 -4.3951445817947388e-01</leafValues></_>
        <_>
          <internalNodes>
            0 -1 13 2.8116097673773766e-03</internalNodes>
          <leafValues>
            -2.3302091658115387e-01 6.2674462795257568e-01</leafValues></_>
        <_>
          <internalNodes>
            0 -1 66 -8.6228266358375549e-02</internalNodes>
          <leafValues>
            6.4947921037673950e-01 -2.6866418123245239e-01</leafValues></_>
        <_>
          <internalNodes>
            0 -1 74 1.6117243096232414e-02</internalNodes>
          <leafValues>
            -2.7631360292434692e-01 5.8378100395202637e-01</leafValues></_>
        <_>
          <internalNodes>
            0 -1 64 -2.3777601309120655e-03</internalNodes>
          <leafValues>
            5.8598214387893677e-01 -2.8101870417594910e-01</leafValues></_>
        <_>
          <internalNodes>
            0 -1 81 -6.6111024352721870e-05</internalNodes>
          <leafValues>
            5.1599556207656860e-01 -2.9119578003883362e-01</leafValues></_>
        <_>
          <internalNodes>
            0 -1 44 2.9800971969962120e-03</internalNodes>
          <leafValues>
            -1.9519180059432983e-01 6.6106611490249634e-01</leafValues></_></weakClassifiers></_>
    <!-- stage 21 -->
    <_>
      <maxWeakCount>11</maxWeakCount>
      <stageThreshold>-3.7533012032508850e-01</stageThreshold>
      <weakClassifiers>
        <_>
          <internalNodes>
            0 -1 121 -1.7980516422539949e-03</internalNodes>
          <leafValues>
            4.8993289470672607e-01 -3.1034481525421143e-01</leafValues></_>
        <_>
          <internalNodes>
            0 -1 12 -4.4058980420231819e-03</internalNodes>
          <leafValues>
            5.8536815643310547e-01 -2.0923216640949249e-01</leafValues></_>
        <_>
          <internalNodes>
            0 -1 10 1.2430099770426750e-02</internalNodes>
          <leafValues>
            -3.9343222975730896e-01 4.1354474425315857e-01</leafValues></_>
        <_>
          <internalNodes>
            0 -1 82 4.2956816032528877e-03</internalNodes>
          <leafValues>
            -1.9004374742507935e-01 6.3029658794403076e-01</leafValues></_>
        <_>
          <internalNodes>
            0 -1 115 6.2151171732693911e-05</internalNodes>
          <leafValues>
            2.4059495329856873e-01 -5.3840804100036621e-01</leafValues></_>
        <_>
          <internalNodes>
            0 -1 61 -6.9000641815364361e-04</internalNodes>
          <leafValues>
            4.6561118960380554e-01 -3.0336859822273254e-01</leafValues></_>
        <_>
          <internalNodes>
            0 -1 170 5.0337868742644787e-04</internalNodes>
          <leafValues>
            -3.7552741169929504e-01 3.9703252911567688e-01</leafValues></_>
        <_>
          <internalNodes>
            0 -1 105 -2.2121494112070650e-05</internalNodes>
          <leafValues>
            3.3462092280387878e-01 -4.8201146721839905e-01</leafValues></_>
        <_>
          <internalNodes>
            0 -1 100 1.1812461889348924e-04</internalNodes>
          <leafValues>
            2.6479586958885193e-01 -6.3425785303115845e-01</leafValues></_>
        <_>
          <internalNodes>
            0 -1 119 -3.4738499380182475e-05</internalNodes>
          <leafValues>
            -5.1780056953430176e-01 2.7779650688171387e-01</leafValues></_>
        <_>
          <internalNodes>
            0 -1 137 -4.0695615462027490e-04</internalNodes>
          <leafValues>
            4.8687645792961121e-01 -3.4401991963386536e-01</leafValues></_></weakClassifiers></_>
    <!-- stage 22 -->
    <_>
      <maxWeakCount>9</maxWeakCount>
      <stageThreshold>-8.8509941101074219e-01</stageThreshold>
      <weakClassifiers>
        <_>
          <internalNodes>
            0 -1 25 -1.0268788784742355e-02</internalNodes>
          <leafValues>
            5.4330706596374512e-01 -2.6222223043441772e-01</leafValues></_>
        <_>
          <internalNodes>
            0 -1 155 -1.7624661268200725e-05</internalNodes>
          <leafValues>
            3.8256862759590149e-01 -3.4404268860816956e-01</leafValues></_>
        <_>
          <internalNodes>
            0 -1 99 -6.6168213379569352e-05</internalNodes>
          <leafValues>
            -6.4111733436584473e-01 2.1139372885227203e-01</leafValues></_>
        <_>
          <internalNodes>
            0 -1 33 2.1205281373113394e-03</internalNodes>
          <leafValues>
            -3.2944852113723755e-01 4.0608993172645569e-01</leafValues></_>
        <_>
          <internalNodes>
            0 -1 70 -8.9126522652804852e-04</internalNodes>
          <leafValues>
            3.2793554663658142e-01 -4.1197848320007324e-01</leafValues></_>
        <_>
          <internalNodes>
            0 -1 151 -6.3816405599936843e-05</internalNodes>
          <leafValues>
            -5.7049137353897095e-01 2.9668796062469482e-01</leafValues></_>
        <_>
          <internalNodes>
            0 -1 41 7.9191299155354500e-03</internalNodes>
          <leafValues>
            -3.2721608877182007e-01 5.3726047277450562e-01</leafValues></_>
        <_>
          <internalNodes>
            0 -1 91 -1.1953047942370176e-04</internalNodes>
          <leafValues>
            -7.0344698429107666e-01 2.3039713501930237e-01</leafValues></_>
        <_>
          <internalNodes>
            0 -1 127 3.7651305319741368e-04</internalNodes>
          <leafValues>
            1.7722955346107483e-01 -7.6232987642288208e-01</leafValues></_></weakClassifiers></_>
    <!-- stage 23 -->
    <_>
      <maxWeakCount>10</maxWeakCount>
      <stageThreshold>-6.3399994373321533e-01</stageThreshold>
      <weakClassifiers>
        <_>
          <internalNodes>
            0 -1 96 -1.2096380814909935e-03</internalNodes>
          <leafValues>
            3.6410257220268250e-01 -3.8853502273559570e-01</leafValues></_>
        <_>
          <internalNodes>
            0 -1 145 -1.1559453560039401e-03</internalNodes>
          <leafValues>
            6.5176224708557129e-01 -1.8114377558231354e-01</leafValues></_>
        <_>
          <internalNodes>
            0 -1 180 -1.7832333105616271e-04</internalNodes>
          <leafValues>
            -5.4086375236511230e-01 2.4512773752212524e-01</leafValues></_>
        <_>
          <internalNodes>
            0 -1 42 -1.6019957140088081e-02</internalNodes>
          <leafValues>
            4.1431012749671936e-01 -3.0144101381301880e-01</leafValues></_>
        <_>
          <internalNodes>
            0 -1 161 -1.3415411114692688e-02</internalNodes>
          <leafValues>
            4.4340828061103821e-01 -3.3015096187591553e-01</leafValues></_>
        <_>
          <internalNodes>
            0 -1 92 -4.8290356062352657e-05</internalNodes>
          <leafValues>
            3.3087199926376343e-01 -3.9218333363533020e-01</leafValues></_>
        <_>
          <internalNodes>
            0 -1 171 -2.1892563381697983e-04</internalNodes>
          <leafValues>
            -6.2690836191177368e-01 2.1580824255943298e-01</leafValues></_>
        <_>
          <internalNodes>
            0 -1 48 -5.2070396486669779e-04</internalNodes>
          <leafValues>
            6.3914400339126587e-01 -2.4278104305267334e-01</leafValues></_>
        <_>
          <internalNodes>
            0 -1 154 -4.8174526455113664e-05</internalNodes>
          <leafValues>
            3.7644308805465698e-01 -3.8164266943931580e-01</leafValues></_>
        <_>
          <internalNodes>
            0 -1 23 -4.5215629506856203e-04</internalNodes>
          <leafValues>
            4.2232194542884827e-01 -3.5275104641914368e-01</leafValues></_></weakClassifiers></_>
    <!-- stage 24 -->
    <_>
      <maxWeakCount>10</maxWeakCount>
      <stageThreshold>-9.6632462739944458e-01</stageThreshold>
      <weakClassifiers>
        <_>
          <internalNodes>
            0 -1 113 -1.1242742039030418e-04</internalNodes>
          <leafValues>
            -5.3846156597137451e-01 2.6612904667854309e-01</leafValues></_>
        <_>
          <internalNodes>
            0 -1 178 1.8267935956828296e-04</internalNodes>
          <leafValues>
            -3.3143702149391174e-01 4.1190579533576965e-01</leafValues></_>
        <_>
          <internalNodes>
            0 -1 37 7.1342694573104382e-03</internalNodes>
          <leafValues>
            -1.9582623243331909e-01 6.2571907043457031e-01</leafValues></_>
        <_>
          <internalNodes>
            0 -1 86 -7.9982433817349374e-05</internalNodes>
          <leafValues>
            -5.6421560049057007e-01 2.7106401324272156e-01</leafValues></_>
        <_>
          <internalNodes>
            0 -1 141 -7.9976511187851429e-05</internalNodes>
          <leafValues>
            3.9948970079421997e-01 -4.2802849411964417e-01</leafValues></_>
        <_>
          <internalNodes>
            0 -1 75 5.2703456021845341e-03</internalNodes>
          <leafValues>
            -2.2728154063224792e-01 7.1857887506484985e-01</leafValues></_>
        <_>
          <internalNodes>
            0 -1 54 4.6978257596492767e-03</internalNodes>
          <leafValues>
            -4.0364041924476624e-01 4.0243399143218994e-01</leafValues></_>
        <_>
          <internalNodes>
            0 -1 0 4.8001031391322613e-03</internalNodes>
          <leafValues>
            3.3858460187911987e-01 -5.1536041498184204e-01</leafValues></_>
        <_>
          <internalNodes>
            0 -1 28 8.6889602243900299e-04</internalNodes>
          <leafValues>
            -4.4867429137229919e-01 3.5266974568367004e-01</leafValues></_>
        <_>
          <internalNodes>
            0 -1 116 -8.0241072282660753e-05</internalNodes>
          <leafValues>
            -7.5906461477279663e-01 2.6776781678199768e-01</leafValues></_></weakClassifiers></_></stages>
  <features>
    <_>
      <rects>
        <_>
          0 0 1 24 -1.</_>
        <_>
          0 8 1 8 3.</_></rects>
      <tilted>0</tilted></_>
    <_>
      <rects>
        <_>
          0 0 2 31 -1.</_>
        <_>
          1 0 1 31 2.</_></rects>
      <tilted>0</tilted></_>
    <_>
      <rects>
        <_>
          0 0 18 4 -1.</_>
        <_>
          0 0 9 2 2.</_>
        <_>
          9 2 9 2 2.</_></rects>
      <tilted>0</tilted></_>
    <_>
      <rects>
        <_>
          0 0 30 18 -1.</_>
        <_>
          10 0 10 18 3.</_></rects>
      <tilted>0</tilted></_>
    <_>
      <rects>
        <_>
          0 1 4 27 -1.</_>
        <_>
          2 1 2 27 2.</_></rects>
      <tilted>0</tilted></_>
    <_>
      <rects>
        <_>
          0 1 12 10 -1.</_>
        <_>
          6 1 6 10 2.</_></rects>
      <tilted>0</tilted></_>
    <_>
      <rects>
        <_>
          0 2 30 4 -1.</_>
        <_>
          10 2 10 4 3.</_></rects>
      <tilted>0</tilted></_>
    <_>
      <rects>
        <_>
          0 5 2 20 -1.</_>
        <_>
          1 5 1 20 2.</_></rects>
      <tilted>0</tilted></_>
    <_>
      <rects>
        <_>
          0 5 10 5 -1.</_>
        <_>
          5 5 5 5 2.</_></rects>
      <tilted>0</tilted></_>
    <_>
      <rects>
        <_>
          0 6 6 20 -1.</_>
        <_>
          2 6 2 20 3.</_></rects>
      <tilted>0</tilted></_>
    <_>
      <rects>
        <_>
          0 6 9 9 -1.</_>
        <_>
          3 6 3 9 3.</_></rects>
      <tilted>0</tilted></_>
    <_>
      <rects>
        <_>
          0 6 14 2 -1.</_>
        <_>
          7 6 7 2 2.</_></rects>
      <tilted>0</tilted></_>
    <_>
      <rects>
        <_>
          0 7 9 2 -1.</_>
        <_>
          3 7 3 2 3.</_></rects>
      <tilted>0</tilted></_>
    <_>
      <rects>
        <_>
          0 11 3 20 -1.</_>
        <_>
          1 11 1 20 3.</_></rects>
      <tilted>0</tilted></_>
    <_>
      <rects>
        <_>
          0 13 2 14 -1.</_>
        <_>
          1 13 1 14 2.</_></rects>
      <tilted>0</tilted></_>
    <_>
      <rects>
        <_>
          0 15 2 14 -1.</_>
        <_>
          0 15 1 7 2.</_>
        <_>
          1 22 1 7 2.</_></rects>
      <tilted>0</tilted></_>
    <_>
      <rects>
        <_>
          0 17 2 4 -1.</_>
        <_>
          1 17 1 4 2.</_></rects>
      <tilted>0</tilted></_>
    <_>
      <rects>
        <_>
          0 17 3 7 -1.</_>
        <_>
          1 17 1 7 3.</_></rects>
      <tilted>0</tilted></_>
    <_>
      <rects>
        <_>
          0 18 6 7 -1.</_>
        <_>
          2 18 2 7 3.</_></rects>
      <tilted>0</tilted></_>
    <_>
      <rects>
        <_>
          0 19 6 8 -1.</_>
        <_>
          0 23 6 4 2.</_></rects>
      <tilted>0</tilted></_>
    <_>
      <rects>
        <_>
          0 20 6 12 -1.</_>
        <_>
          0 20 3 6 2.</_>
        <_>
          3 26 3 6 2.</_></rects>
      <tilted>0</tilted></_>
    <_>
      <rects>
        <_>
          0 22 5 4 -1.</_>
        <_>
          0 24 5 2 2.</_></rects>
      <tilted>0</tilted></_>
    <_>
      <rects>
        <_>
          0 24 15 3 -1.</_>
        <_>
          5 24 5 3 3.</_></rects>
      <tilted>0</tilted></_>
    <_>
      <rects>
        <_>
          0 25 6 3 -1.</_>
        <_>
          2 25 2 3 3.</_></rects>
      <tilted>0</tilted></_>
    <_>
      <rects>
        <_>
          0 26 10 6 -1.</_>
        <_>
          0 26 5 3 2.</_>
        <_>
          5 29 5 3 2.</_></rects>
      <tilted>0</tilted></_>
    <_>
      <rects>
        <_>
          0 28 12 4 -1.</_>
        <_>
          0 28 6 2 2.</_>
        <_>
          6 30 6 2 2.</_></rects>
      <tilted>0</tilted></_>
    <_>
      <rects>
        <_>
          0 28 26 4 -1.</_>
        <_>
          0 30 26 2 2.</_></rects>
      <tilted>0</tilted></_>
    <_>
      <rects>
        <_>
          0 29 27 2 -1.</_>
        <_>
          9 29 9 2 3.</_></rects>
      <tilted>0</tilted></_>
    <_>
      <rects>
        <_>
          1 0 3 21 -1.</_>
        <_>
          2 0 1 21 3.</_></rects>
      <tilted>0</tilted></_>
    <_>
      <rects>
        <_>
          1 1 24 7 -1.</_>
        <_>
          9 1 8 7 3.</_></rects>
      <tilted>0</tilted></_>
    <_>
      <rects>
        <_>
          1 3 12 7 -1.</_>
        <_>
          7 3 6 7 2.</_></rects>
      <tilted>0</tilted></_>
    <_>
      <rects>
        <_>
          1 8 1 24 -1.</_>
        <_>
          1 16 1 8 3.</_></rects>
      <tilted>0</tilted></_>
    <_>
      <rects>
        <_>
          1 9 21 16 -1.</_>
        <_>
          1 17 21 8 2.</_></rects>
      <tilted>0</tilted></_>
    <_>
      <rects>
        <_>
          1 18 2 12 -1.</_>
        <_>
          2 18 1 12 2.</_></rects>
      <tilted>0</tilted></_>
    <_>
      <rects>
        <_>
          1 21 7 10 -1.</_>
        <_>
          1 26 7 5 2.</_></rects>
      <tilted>0</tilted></_>
    <_>
      <rects>
        <_>
          1 22 8 10 -1.</_>
        <_>
          1 27 8 5 2.</_></rects>
      <tilted>0</tilted></_>
    <_>
      <rects>
        <_>
          1 27 18 1 -1.</_>
        <_>
          7 27 6 1 3.</_></rects>
      <tilted>0</tilted></_>
    <_>
      <rects>
        <_>
          2 15 27 6 -1.</_>
        <_>
          2 17 27 2 3.</_></rects>
      <tilted>0</tilted></_>
    <_>
      <rects>
        <_>
          2 25 3 6 -1.</_>
        <_>
          2 27 3 2 3.</_></rects>
      <tilted>0</tilted></_>
    <_>
      <rects>
        <_>
          2 27 11 4 -1.</_>
        <_>
          2 29 11 2 2.</_></rects>
      <tilted>0</tilted></_>
    <_>
      <rects>
        <_>
          3 0 22 12 -1.</_>
        <_>
          3 4 22 4 3.</_></rects>
      <tilted>0</tilted></_>
    <_>
      <rects>
        <_>
          3 4 9 3 -1.</_>
        <_>
          6 4 3 3 3.</_></rects>
      <tilted>0</tilted></_>
    <_>
      <rects>
        <_>
          3 9 21 8 -1.</_>
        <_>
          3 13 21 4 2.</_></rects>
      <tilted>0</tilted></_>
    <_>
      <rects>
        <_>
          3 16 3 12 -1.</_>
        <_>
          3 22 3 6 2.</_></rects>
      <tilted>0</tilted></_>
    <_>
      <rects>
        <_>
          3 23 4 6 -1.</_>
        <_>
          3 23 2 3 2.</_>
        <_>
          5 26 2 3 2.</_></rects>
      <tilted>0</tilted></_>
    <_>
      <rects>
        <_>
          3 23 3 8 -1.</_>
        <_>
          3 27 3 4 2.</_></rects>
      <tilted>0</tilted></_>
    <_>
      <rects>
        <_>
          5 0 23 4 -1.</_>
        <_>
          5 2 23 2 2.</_></rects>
      <tilted>0</tilted></_>
    <_>
      <rects>
        <_>
          5 1 12 6 -1.</_>
        <_>
          5 1 6 3 2.</_>
        <_>
          11 4 6 3 2.</_></rects>
      <tilted>0</tilted></_>
    <_>
      <rects>
        <_>
          5 5 4 14 -1.</_>
        <_>
          7 5 2 14 2.</_></rects>
      <tilted>0</tilted></_>
    <_>
      <rects>
        <_>
          5 11 5 2 -1.</_>
        <_>
          5 12 5 1 2.</_></rects>
      <tilted>0</tilted></_>
    <_>
      <rects>
        <_>
          5 16 2 3 -1.</_>
        <_>
          5 17 2 1 3.</_></rects>
      <tilted>0</tilted></_>
    <_>
      <rects>
        <_>
          5 28 21 4 -1.</_>
        <_>
          5 30 21 2 2.</_></rects>
      <tilted>0</tilted></_>
    <_>
      <rects>
        <_>
          6 0 4 8 -1.</_>
        <_>
          6 4 4 4 2.</_></rects>
      <tilted>0</tilted></_>
    <_>
      <rects>
        <_>
          6 0 21 15 -1.</_>
        <_>
          6 5 21 5 3.</_></rects>
      <tilted>0</tilted></_>
    <_>
      <rects>
        <_>
          6 3 9 6 -1.</_>
        <_>
          9 3 3 6 3.</_></rects>
      <tilted>0</tilted></_>
    <_>
      <rects>
        <_>
          6 12 6 6 -1.</_>
        <_>
          8 12 2 6 3.</_></rects>
      <tilted>0</tilted></_>
    <_>
      <rects>
        <_>
          6 21 2 2 -1.</_>
        <_>
          6 21 1 1 2.</_>
        <_>
          7 22 1 1 2.</_></rects>
      <tilted>0</tilted></_>
    <_>
      <rects>
        <_>
          6 22 3 5 -1.</_>
        <_>
          7 22 1 5 3.</_></rects>
      <tilted>0</tilted></_>
    <_>
      <rects>
        <_>
          6 25 26 6 -1.</_>
        <_>
          6 28 26 3 2.</_></rects>
      <tilted>0</tilted></_>
    <_>
      <rects>
        <_>
          6 29 5 3 -1.</_>
        <_>
          6 30 5 1 3.</_></rects>
      <tilted>0</tilted></_>
    <_>
      <rects>
        <_>
          6 29 24 2 -1.</_>
        <_>
          14 29 8 2 3.</_></rects>
      <tilted>0</tilted></_>
    <_>
      <rects>
        <_>
          7 0 3 6 -1.</_>
        <_>
          7 2 3 2 3.</_></rects>
      <tilted>0</tilted></_>
    <_>
      <rects>
        <_>
          7 15 25 6 -1.</_>
        <_>
          7 17 25 2 3.</_></rects>
      <tilted>0</tilted></_>
    <_>
      <rects>
        <_>
          7 24 3 1 -1.</_>
        <_>
          8 24 1 1 3.</_></rects>
      <tilted>0</tilted></_>
    <_>
      <rects>
        <_>
          7 25 20 2 -1.</_>
        <_>
          7 26 20 1 2.</_></rects>
      <tilted>0</tilted></_>
    <_>
      <rects>
        <_>
          8 0 5 12 -1.</_>
        <_>
          8 4 5 4 3.</_></rects>
      <tilted>0</tilted></_>
    <_>
      <rects>
        <_>
          8 0 16 22 -1.</_>
        <_>
          16 0 8 22 2.</_></rects>
      <tilted>0</tilted></_>
    <_>
      <rects>
        <_>
          8 0 20 9 -1.</_>
        <_>
          8 3 20 3 3.</_></rects>
      <tilted>0</tilted></_>
    <_>
      <rects>
        <_>
          8 1 14 4 -1.</_>
        <_>
          8 3 14 2 2.</_></rects>
      <tilted>0</tilted></_>
    <_>
      <rects>
        <_>
          8 9 13 6 -1.</_>
        <_>
          8 11 13 2 3.</_></rects>
      <tilted>0</tilted></_>
    <_>
      <rects>
        <_>
          8 26 9 2 -1.</_>
        <_>
          8 27 9 1 2.</_></rects>
      <tilted>0</tilted></_>
    <_>
      <rects>
        <_>
          9 0 22 13 -1.</_>
        <_>
          20 0 11 13 2.</_></rects>
      <tilted>0</tilted></_>
    <_>
      <rects>
        <_>
          9 1 14 3 -1.</_>
        <_>
          9 2 14 1 3.</_></rects>
      <tilted>0</tilted></_>
    <_>
      <rects>
        <_>
          9 1 19 6 -1.</_>
        <_>
          9 3 19 2 3.</_></rects>
      <tilted>0</tilted></_>
    <_>
      <rects>
        <_>
          9 4 21 2 -1.</_>
        <_>
          16 4 7 2 3.</_></rects>
      <tilted>0</tilted></_>
    <_>
      <rects>
        <_>
          9 11 15 9 -1.</_>
        <_>
          9 14 15 3 3.</_></rects>
      <tilted>0</tilted></_>
    <_>
      <rects>
        <_>
          9 29 7 3 -1.</_>
        <_>
          9 30 7 1 3.</_></rects>
      <tilted>0</tilted></_>
    <_>
      <rects>
        <_>
          9 29 16 3 -1.</_>
        <_>
          9 30 16 1 3.</_></rects>
      <tilted>0</tilted></_>
    <_>
      <rects>
        <_>
          9 30 7 2 -1.</_>
        <_>
          9 31 7 1 2.</_></rects>
      <tilted>0</tilted></_>
    <_>
      <rects>
        <_>
          10 0 12 6 -1.</_>
        <_>
          10 2 12 2 3.</_></rects>
      <tilted>0</tilted></_>
    <_>
      <rects>
        <_>
          10 1 14 10 -1.</_>
        <_>
          17 1 7 10 2.</_></rects>
      <tilted>0</tilted></_>
    <_>
      <rects>
        <_>
          10 4 4 1 -1.</_>
        <_>
          12 4 2 1 2.</_></rects>
      <tilted>0</tilted></_>
    <_>
      <rects>
        <_>
          10 5 9 9 -1.</_>
        <_>
          10 8 9 3 3.</_></rects>
      <tilted>0</tilted></_>
    <_>
      <rects>
        <_>
          10 9 11 15 -1.</_>
        <_>
          10 14 11 5 3.</_></rects>
      <tilted>0</tilted></_>
    <_>
      <rects>
        <_>
          10 29 1 2 -1.</_>
        <_>
          10 30 1 1 2.</_></rects>
      <tilted>0</tilted></_>
    <_>
      <rects>
        <_>
          10 30 16 2 -1.</_>
        <_>
          10 31 16 1 2.</_></rects>
      <tilted>0</tilted></_>
    <_>
      <rects>
        <_>
          11 9 2 3 -1.</_>
        <_>
          11 10 2 1 3.</_></rects>
      <tilted>0</tilted></_>
    <_>
      <rects>
        <_>
          11 16 3 1 -1.</_>
        <_>
          12 16 1 1 3.</_></rects>
      <tilted>0</tilted></_>
    <_>
      <rects>
        <_>
          11 25 3 3 -1.</_>
        <_>
          12 25 1 3 3.</_></rects>
      <tilted>0</tilted></_>
    <_>
      <rects>
        <_>
          11 26 5 2 -1.</_>
        <_>
          11 27 5 1 2.</_></rects>
      <tilted>0</tilted></_>
    <_>
      <rects>
        <_>
          11 27 3 1 -1.</_>
        <_>
          12 27 1 1 3.</_></rects>
      <tilted>0</tilted></_>
    <_>
      <rects>
        <_>
          11 29 3 1 -1.</_>
        <_>
          12 29 1 1 3.</_></rects>
      <tilted>0</tilted></_>
    <_>
      <rects>
        <_>
          12 26 1 2 -1.</_>
        <_>
          12 27 1 1 2.</_></rects>
      <tilted>0</tilted></_>
    <_>
      <rects>
        <_>
          12 26 20 2 -1.</_>
        <_>
          12 27 20 1 2.</_></rects>
      <tilted>0</tilted></_>
    <_>
      <rects>
        <_>
          12 27 3 3 -1.</_>
        <_>
          13 27 1 3 3.</_></rects>
      <tilted>0</tilted></_>
    <_>
      <rects>
        <_>
          12 28 2 2 -1.</_>
        <_>
          12 28 1 1 2.</_>
        <_>
          13 29 1 1 2.</_></rects>
      <tilted>0</tilted></_>
    <_>
      <rects>
        <_>
          12 28 2 4 -1.</_>
        <_>
          12 30 2 2 2.</_></rects>
      <tilted>0</tilted></_>
    <_>
      <rects>
        <_>
          12 29 5 2 -1.</_>
        <_>
          12 30 5 1 2.</_></rects>
      <tilted>0</tilted></_>
    <_>
      <rects>
        <_>
          13 4 3 3 -1.</_>
        <_>
          14 4 1 3 3.</_></rects>
      <tilted>0</tilted></_>
    <_>
      <rects>
        <_>
          13 7 2 2 -1.</_>
        <_>
          13 7 1 1 2.</_>
        <_>
          14 8 1 1 2.</_></rects>
      <tilted>0</tilted></_>
    <_>
      <rects>
        <_>
          13 12 3 2 -1.</_>
        <_>
          14 12 1 2 3.</_></rects>
      <tilted>0</tilted></_>
    <_>
      <rects>
        <_>
          13 29 3 1 -1.</_>
        <_>
          14 29 1 1 3.</_></rects>
      <tilted>0</tilted></_>
    <_>
      <rects>
        <_>
          14 2 2 12 -1.</_>
        <_>
          14 8 2 6 2.</_></rects>
      <tilted>0</tilted></_>
    <_>
      <rects>
        <_>
          14 2 18 30 -1.</_>
        <_>
          14 17 18 15 2.</_></rects>
      <tilted>0</tilted></_>
    <_>
      <rects>
        <_>
          14 6 7 2 -1.</_>
        <_>
          14 7 7 1 2.</_></rects>
      <tilted>0</tilted></_>
    <_>
      <rects>
        <_>
          14 7 1 2 -1.</_>
        <_>
          14 8 1 1 2.</_></rects>
      <tilted>0</tilted></_>
    <_>
      <rects>
        <_>
          14 9 1 2 -1.</_>
        <_>
          14 10 1 1 2.</_></rects>
      <tilted>0</tilted></_>
    <_>
      <rects>
        <_>
          14 13 3 2 -1.</_>
        <_>
          15 13 1 2 3.</_></rects>
      <tilted>0</tilted></_>
    <_>
      <rects>
        <_>
          14 13 2 2 -1.</_>
        <_>
          14 14 2 1 2.</_></rects>
      <tilted>0</tilted></_>
    <_>
      <rects>
        <_>
          14 24 1 2 -1.</_>
        <_>
          14 25 1 1 2.</_></rects>
      <tilted>0</tilted></_>
    <_>
      <rects>
        <_>
          14 24 3 8 -1.</_>
        <_>
          15 24 1 8 3.</_></rects>
      <tilted>0</tilted></_>
    <_>
      <rects>
        <_>
          14 28 3 1 -1.</_>
        <_>
          15 28 1 1 3.</_></rects>
      <tilted>0</tilted></_>
    <_>
      <rects>
        <_>
          14 29 3 1 -1.</_>
        <_>
          15 29 1 1 3.</_></rects>
      <tilted>0</tilted></_>
    <_>
      <rects>
        <_>
          14 29 3 2 -1.</_>
        <_>
          15 29 1 2 3.</_></rects>
      <tilted>0</tilted></_>
    <_>
      <rects>
        <_>
          15 1 14 14 -1.</_>
        <_>
          15 1 7 7 2.</_>
        <_>
          22 8 7 7 2.</_></rects>
      <tilted>0</tilted></_>
    <_>
      <rects>
        <_>
          15 3 3 1 -1.</_>
        <_>
          16 3 1 1 3.</_></rects>
      <tilted>0</tilted></_>
    <_>
      <rects>
        <_>
          15 5 3 1 -1.</_>
        <_>
          16 5 1 1 3.</_></rects>
      <tilted>0</tilted></_>
    <_>
      <rects>
        <_>
          15 5 2 2 -1.</_>
        <_>
          15 5 1 1 2.</_>
        <_>
          16 6 1 1 2.</_></rects>
      <tilted>0</tilted></_>
    <_>
      <rects>
        <_>
          15 12 1 3 -1.</_>
        <_>
          15 13 1 1 3.</_></rects>
      <tilted>0</tilted></_>
    <_>
      <rects>
        <_>
          15 19 3 1 -1.</_>
        <_>
          16 19 1 1 3.</_></rects>
      <tilted>0</tilted></_>
    <_>
      <rects>
        <_>
          15 22 3 1 -1.</_>
        <_>
          16 22 1 1 3.</_></rects>
      <tilted>0</tilted></_>
    <_>
      <rects>
        <_>
          15 28 10 4 -1.</_>
        <_>
          15 28 5 2 2.</_>
        <_>
          20 30 5 2 2.</_></rects>
      <tilted>0</tilted></_>
    <_>
      <rects>
        <_>
          16 0 3 3 -1.</_>
        <_>
          16 1 3 1 3.</_></rects>
      <tilted>0</tilted></_>
    <_>
      <rects>
        <_>
          16 0 5 3 -1.</_>
        <_>
          16 1 5 1 3.</_></rects>
      <tilted>0</tilted></_>
    <_>
      <rects>
        <_>
          16 1 6 7 -1.</_>
        <_>
          18 1 2 7 3.</_></rects>
      <tilted>0</tilted></_>
    <_>
      <rects>
        <_>
          16 4 3 4 -1.</_>
        <_>
          17 4 1 4 3.</_></rects>
      <tilted>0</tilted></_>
    <_>
      <rects>
        <_>
          16 13 1 2 -1.</_>
        <_>
          16 14 1 1 2.</_></rects>
      <tilted>0</tilted></_>
    <_>
      <rects>
        <_>
          16 21 3 4 -1.</_>
        <_>
          17 21 1 4 3.</_></rects>
      <tilted>0</tilted></_>
    <_>
      <rects>
        <_>
          17 4 3 2 -1.</_>
        <_>
          18 4 1 2 3.</_></rects>
      <tilted>0</tilted></_>
    <_>
      <rects>
        <_>
          17 6 3 4 -1.</_>
        <_>
          18 6 1 4 3.</_></rects>
      <tilted>0</tilted></_>
    <_>
      <rects>
        <_>
          17 8 3 1 -1.</_>
        <_>
          18 8 1 1 3.</_></rects>
      <tilted>0</tilted></_>
    <_>
      <rects>
        <_>
          17 8 2 2 -1.</_>
        <_>
          17 8 1 1 2.</_>
        <_>
          18 9 1 1 2.</_></rects>
      <tilted>0</tilted></_>
    <_>
      <rects>
        <_>
          17 17 12 5 -1.</_>
        <_>
          21 17 4 5 3.</_></rects>
      <tilted>0</tilted></_>
    <_>
      <rects>
        <_>
          17 25 12 7 -1.</_>
        <_>
          23 25 6 7 2.</_></rects>
      <tilted>0</tilted></_>
    <_>
      <rects>
        <_>
          17 26 2 2 -1.</_>
        <_>
          17 26 1 1 2.</_>
        <_>
          18 27 1 1 2.</_></rects>
      <tilted>0</tilted></_>
    <_>
      <rects>
        <_>
          17 28 11 4 -1.</_>
        <_>
          17 30 11 2 2.</_></rects>
      <tilted>0</tilted></_>
    <_>
      <rects>
        <_>
          17 29 3 1 -1.</_>
        <_>
          18 29 1 1 3.</_></rects>
      <tilted>0</tilted></_>
    <_>
      <rects>
        <_>
          18 0 4 4 -1.</_>
        <_>
          18 0 2 2 2.</_>
        <_>
          20 2 2 2 2.</_></rects>
      <tilted>0</tilted></_>
    <_>
      <rects>
        <_>
          18 4 4 7 -1.</_>
        <_>
          20 4 2 7 2.</_></rects>
      <tilted>0</tilted></_>
    <_>
      <rects>
        <_>
          18 8 3 2 -1.</_>
        <_>
          19 8 1 2 3.</_></rects>
      <tilted>0</tilted></_>
    <_>
      <rects>
        <_>
          18 8 3 3 -1.</_>
        <_>
          19 8 1 3 3.</_></rects>
      <tilted>0</tilted></_>
    <_>
      <rects>
        <_>
          18 9 1 4 -1.</_>
        <_>
          18 11 1 2 2.</_></rects>
      <tilted>0</tilted></_>
    <_>
      <rects>
        <_>
          18 10 3 2 -1.</_>
        <_>
          19 10 1 2 3.</_></rects>
      <tilted>0</tilted></_>
    <_>
      <rects>
        <_>
          18 26 3 4 -1.</_>
        <_>
          19 26 1 4 3.</_></rects>
      <tilted>0</tilted></_>
    <_>
      <rects>
        <_>
          18 29 3 1 -1.</_>
        <_>
          19 29 1 1 3.</_></rects>
      <tilted>0</tilted></_>
    <_>
      <rects>
        <_>
          18 30 6 2 -1.</_>
        <_>
          18 30 3 1 2.</_>
        <_>
          21 31 3 1 2.</_></rects>
      <tilted>0</tilted></_>
    <_>
      <rects>
        <_>
          19 1 12 4 -1.</_>
        <_>
          19 1 6 2 2.</_>
        <_>
          25 3 6 2 2.</_></rects>
      <tilted>0</tilted></_>
    <_>
      <rects>
        <_>
          19 2 9 18 -1.</_>
        <_>
          19 8 9 6 3.</_></rects>
      <tilted>0</tilted></_>
    <_>
      <rects>
        <_>
          19 6 1 2 -1.</_>
        <_>
          19 7 1 1 2.</_></rects>
      <tilted>0</tilted></_>
    <_>
      <rects>
        <_>
          19 6 2 2 -1.</_>
        <_>
          19 6 1 1 2.</_>
        <_>
          20 7 1 1 2.</_></rects>
      <tilted>0</tilted></_>
    <_>
      <rects>
        <_>
          19 25 10 2 -1.</_>
        <_>
          19 26 10 1 2.</_></rects>
      <tilted>0</tilted></_>
    <_>
      <rects>
        <_>
          19 29 3 1 -1.</_>
        <_>
          20 29 1 1 3.</_></rects>
      <tilted>0</tilted></_>
    <_>
      <rects>
        <_>
          19 30 10 2 -1.</_>
        <_>
          19 30 5 1 2.</_>
        <_>
          24 31 5 1 2.</_></rects>
      <tilted>0</tilted></_>
    <_>
      <rects>
        <_>
          20 5 2 6 -1.</_>
        <_>
          21 5 1 6 2.</_></rects>
      <tilted>0</tilted></_>
    <_>
      <rects>
        <_>
          20 11 2 1 -1.</_>
        <_>
          21 11 1 1 2.</_></rects>
      <tilted>0</tilted></_>
    <_>
      <rects>
        <_>
          20 13 2 1 -1.</_>
        <_>
          21 13 1 1 2.</_></rects>
      <tilted>0</tilted></_>
    <_>
      <rects>
        <_>
          21 3 8 20 -1.</_>
        <_>
          21 3 4 10 2.</_>
        <_>
          25 13 4 10 2.</_></rects>
      <tilted>0</tilted></_>
    <_>
      <rects>
        <_>
          21 18 3 10 -1.</_>
        <_>
          22 18 1 10 3.</_></rects>
      <tilted>0</tilted></_>
    <_>
      <rects>
        <_>
          22 0 1 6 -1.</_>
        <_>
          22 2 1 2 3.</_></rects>
      <tilted>0</tilted></_>
    <_>
      <rects>
        <_>
          22 0 10 1 -1.</_>
        <_>
          27 0 5 1 2.</_></rects>
      <tilted>0</tilted></_>
    <_>
      <rects>
        <_>
          22 8 4 2 -1.</_>
        <_>
          22 9 4 1 2.</_></rects>
      <tilted>0</tilted></_>
    <_>
      <rects>
        <_>
          23 6 8 16 -1.</_>
        <_>
          27 6 4 16 2.</_></rects>
      <tilted>0</tilted></_>
    <_>
      <rects>
        <_>
          23 23 9 3 -1.</_>
        <_>
          26 23 3 3 3.</_></rects>
      <tilted>0</tilted></_>
    <_>
      <rects>
        <_>
          23 27 9 4 -1.</_>
        <_>
          26 27 3 4 3.</_></rects>
      <tilted>0</tilted></_>
    <_>
      <rects>
        <_>
          23 27 4 2 -1.</_>
        <_>
          23 28 4 1 2.</_></rects>
      <tilted>0</tilted></_>
    <_>
      <rects>
        <_>
          24 8 1 6 -1.</_>
        <_>
          24 11 1 3 2.</_></rects>
      <tilted>0</tilted></_>
    <_>
      <rects>
        <_>
          24 26 8 6 -1.</_>
        <_>
          24 26 4 3 2.</_>
        <_>
          28 29 4 3 2.</_></rects>
      <tilted>0</tilted></_>
    <_>
      <rects>
        <_>
          25 20 4 12 -1.</_>
        <_>
          25 26 4 6 2.</_></rects>
      <tilted>0</tilted></_>
    <_>
      <rects>
        <_>
          26 7 6 8 -1.</_>
        <_>
          28 7 2 8 3.</_></rects>
      <tilted>0</tilted></_>
    <_>
      <rects>
        <_>
          26 8 6 13 -1.</_>
        <_>
          28 8 2 13 3.</_></rects>
      <tilted>0</tilted></_>
    <_>
      <rects>
        <_>
          26 19 6 1 -1.</_>
        <_>
          28 19 2 1 3.</_></rects>
      <tilted>0</tilted></_>
    <_>
      <rects>
        <_>
          26 21 3 3 -1.</_>
        <_>
          26 22 3 1 3.</_></rects>
      <tilted>0</tilted></_>
    <_>
      <rects>
        <_>
          28 5 4 22 -1.</_>
        <_>
          30 5 2 22 2.</_></rects>
      <tilted>0</tilted></_>
    <_>
      <rects>
        <_>
          28 8 4 19 -1.</_>
        <_>
          30 8 2 19 2.</_></rects>
      <tilted>0</tilted></_>
    <_>
      <rects>
        <_>
          28 14 1 16 -1.</_>
        <_>
          28 22 1 8 2.</_></rects>
      <tilted>0</tilted></_>
    <_>
      <rects>
        <_>
          28 14 1 18 -1.</_>
        <_>
          28 23 1 9 2.</_></rects>
      <tilted>0</tilted></_>
    <_>
      <rects>
        <_>
          28 18 2 8 -1.</_>
        <_>
          28 22 2 4 2.</_></rects>
      <tilted>0</tilted></_>
    <_>
      <rects>
        <_>
          28 19 4 5 -1.</_>
        <_>
          30 19 2 5 2.</_></rects>
      <tilted>0</tilted></_>
    <_>
      <rects>
        <_>
          28 27 4 3 -1.</_>
        <_>
          30 27 2 3 2.</_></rects>
      <tilted>0</tilted></_>
    <_>
      <rects>
        <_>
          29 9 3 15 -1.</_>
        <_>
          30 9 1 15 3.</_></rects>
      <tilted>0</tilted></_>
    <_>
      <rects>
        <_>
          30 2 2 4 -1.</_>
        <_>
          31 2 1 4 2.</_></rects>
      <tilted>0</tilted></_></features></cascade>
</opencv_storage>
